digraph Tree {
node [shape=box] ;
0 [label="36 <= 0.5\ngini = 0.9\nsamples = 1000\nvalue = [100, 100, 100, 100, 100, 100, 100, 100, 100, 100]"] ;
1 [label="42 <= 7.5\ngini = 0.547\nsamples = 146\nvalue = [95, 0, 7, 0, 4, 15, 4, 0, 3, 18]"] ;
0 -> 1 [labeldistance=2.5, labelangle=45, headlabel="True"] ;
2 [label="21 <= 7.0\ngini = 0.522\nsamples = 33\nvalue = [0, 0, 0, 0, 1, 14, 0, 0, 0, 18]"] ;
1 -> 2 ;
3 [label="18 <= 3.5\ngini = 0.142\nsamples = 13\nvalue = [0, 0, 0, 0, 1, 12, 0, 0, 0, 0]"] ;
2 -> 3 ;
4 [label="gini = 0.0\nsamples = 1\nvalue = [0, 0, 0, 0, 1, 0, 0, 0, 0, 0]"] ;
3 -> 4 ;
5 [label="gini = 0.0\nsamples = 12\nvalue = [0, 0, 0, 0, 0, 12, 0, 0, 0, 0]"] ;
3 -> 5 ;
6 [label="53 <= 3.5\ngini = 0.18\nsamples = 20\nvalue = [0, 0, 0, 0, 0, 2, 0, 0, 0, 18]"] ;
2 -> 6 ;
7 [label="gini = 0.0\nsamples = 2\nvalue = [0, 0, 0, 0, 0, 2, 0, 0, 0, 0]"] ;
6 -> 7 ;
8 [label="gini = 0.0\nsamples = 18\nvalue = [0, 0, 0, 0, 0, 0, 0, 0, 0, 18]"] ;
6 -> 8 ;
9 [label="21 <= 3.0\ngini = 0.287\nsamples = 113\nvalue = [95, 0, 7, 0, 3, 1, 4, 0, 3, 0]"] ;
1 -> 9 ;
10 [label="9 <= 3.0\ngini = 0.667\nsamples = 15\nvalue = [0, 0, 7, 0, 3, 1, 4, 0, 0, 0]"] ;
9 -> 10 ;
11 [label="11 <= 11.5\ngini = 0.594\nsamples = 8\nvalue = [0, 0, 0, 0, 3, 1, 4, 0, 0, 0]"] ;
10 -> 11 ;
12 [label="gini = 0.0\nsamples = 3\nvalue = [0, 0, 0, 0, 3, 0, 0, 0, 0, 0]"] ;
11 -> 12 ;
13 [label="35 <= 11.5\ngini = 0.32\nsamples = 5\nvalue = [0, 0, 0, 0, 0, 1, 4, 0, 0, 0]"] ;
11 -> 13 ;
14 [label="gini = 0.0\nsamples = 4\nvalue = [0, 0, 0, 0, 0, 0, 4, 0, 0, 0]"] ;
13 -> 14 ;
15 [label="gini = 0.0\nsamples = 1\nvalue = [0, 0, 0, 0, 0, 1, 0, 0, 0, 0]"] ;
13 -> 15 ;
16 [label="gini = 0.0\nsamples = 7\nvalue = [0, 0, 7, 0, 0, 0, 0, 0, 0, 0]"] ;
10 -> 16 ;
17 [label="27 <= 14.5\ngini = 0.059\nsamples = 98\nvalue = [95, 0, 0, 0, 0, 0, 0, 0, 3, 0]"] ;
9 -> 17 ;
18 [label="30 <= 0.5\ngini = 0.021\nsamples = 96\nvalue = [95, 0, 0, 0, 0, 0, 0, 0, 1, 0]"] ;
17 -> 18 ;
19 [label="gini = 0.0\nsamples = 1\nvalue = [0, 0, 0, 0, 0, 0, 0, 0, 1, 0]"] ;
18 -> 19 ;
20 [label="gini = 0.0\nsamples = 95\nvalue = [95, 0, 0, 0, 0, 0, 0, 0, 0, 0]"] ;
18 -> 20 ;
21 [label="gini = 0.0\nsamples = 2\nvalue = [0, 0, 0, 0, 0, 0, 0, 0, 2, 0]"] ;
17 -> 21 ;
22 [label="60 <= 2.5\ngini = 0.89\nsamples = 854\nvalue = [5, 100, 93, 100, 96, 85, 96, 100, 97, 82]"] ;
0 -> 22 [labeldistance=2.5, labelangle=-45, headlabel="False"] ;
23 [label="18 <= 7.5\ngini = 0.354\nsamples = 99\nvalue = [0, 1, 0, 0, 6, 5, 0, 79, 4, 4]"] ;
22 -> 23 ;
24 [label="49 <= 7.0\ngini = 0.052\nsamples = 75\nvalue = [0, 1, 0, 0, 0, 0, 0, 73, 1, 0]"] ;
23 -> 24 ;
25 [label="10 <= 0.5\ngini = 0.027\nsamples = 74\nvalue = [0, 1, 0, 0, 0, 0, 0, 73, 0, 0]"] ;
24 -> 25 ;
26 [label="gini = 0.0\nsamples = 1\nvalue = [0, 1, 0, 0, 0, 0, 0, 0, 0, 0]"] ;
25 -> 26 ;
27 [label="gini = 0.0\nsamples = 73\nvalue = [0, 0, 0, 0, 0, 0, 0, 73, 0, 0]"] ;
25 -> 27 ;
28 [label="gini = 0.0\nsamples = 1\nvalue = [0, 0, 0, 0, 0, 0, 0, 0, 1, 0]"] ;
24 -> 28 ;
29 [label="29 <= 3.0\ngini = 0.788\nsamples = 24\nvalue = [0, 0, 0, 0, 6, 5, 0, 6, 3, 4]"] ;
23 -> 29 ;
30 [label="gini = 0.0\nsamples = 5\nvalue = [0, 0, 0, 0, 0, 5, 0, 0, 0, 0]"] ;
29 -> 30 ;
31 [label="5 <= 0.5\ngini = 0.731\nsamples = 19\nvalue = [0, 0, 0, 0, 6, 0, 0, 6, 3, 4]"] ;
29 -> 31 ;
32 [label="44 <= 6.0\ngini = 0.245\nsamples = 7\nvalue = [0, 0, 0, 0, 6, 0, 0, 0, 1, 0]"] ;
31 -> 32 ;
33 [label="gini = 0.0\nsamples = 1\nvalue = [0, 0, 0, 0, 0, 0, 0, 0, 1, 0]"] ;
32 -> 33 ;
34 [label="gini = 0.0\nsamples = 6\nvalue = [0, 0, 0, 0, 6, 0, 0, 0, 0, 0]"] ;
32 -> 34 ;
35 [label="35 <= 7.0\ngini = 0.611\nsamples = 12\nvalue = [0, 0, 0, 0, 0, 0, 0, 6, 2, 4]"] ;
31 -> 35 ;
36 [label="gini = 0.0\nsamples = 4\nvalue = [0, 0, 0, 0, 0, 0, 0, 0, 0, 4]"] ;
35 -> 36 ;
37 [label="42 <= 8.0\ngini = 0.375\nsamples = 8\nvalue = [0, 0, 0, 0, 0, 0, 0, 6, 2, 0]"] ;
35 -> 37 ;
38 [label="gini = 0.0\nsamples = 6\nvalue = [0, 0, 0, 0, 0, 0, 0, 6, 0, 0]"] ;
37 -> 38 ;
39 [label="gini = 0.0\nsamples = 2\nvalue = [0, 0, 0, 0, 0, 0, 0, 0, 2, 0]"] ;
37 -> 39 ;
40 [label="42 <= 9.5\ngini = 0.882\nsamples = 755\nvalue = [5, 99, 93, 100, 90, 80, 96, 21, 93, 78]"] ;
22 -> 40 ;
41 [label="21 <= 2.5\ngini = 0.847\nsamples = 478\nvalue = [1, 75, 71, 100, 34, 80, 2, 18, 19, 78]"] ;
40 -> 41 ;
42 [label="5 <= 1.5\ngini = 0.649\nsamples = 142\nvalue = [0, 18, 25, 10, 10, 77, 2, 0, 0, 0]"] ;
41 -> 42 ;
43 [label="19 <= 15.5\ngini = 0.7\nsamples = 56\nvalue = [0, 14, 25, 6, 9, 0, 2, 0, 0, 0]"] ;
42 -> 43 ;
44 [label="37 <= 5.5\ngini = 0.519\nsamples = 39\nvalue = [0, 0, 25, 5, 9, 0, 0, 0, 0, 0]"] ;
43 -> 44 ;
45 [label="52 <= 3.5\ngini = 0.074\nsamples = 26\nvalue = [0, 0, 25, 1, 0, 0, 0, 0, 0, 0]"] ;
44 -> 45 ;
46 [label="gini = 0.0\nsamples = 1\nvalue = [0, 0, 0, 1, 0, 0, 0, 0, 0, 0]"] ;
45 -> 46 ;
47 [label="gini = 0.0\nsamples = 25\nvalue = [0, 0, 25, 0, 0, 0, 0, 0, 0, 0]"] ;
45 -> 47 ;
48 [label="35 <= 13.5\ngini = 0.426\nsamples = 13\nvalue = [0, 0, 0, 4, 9, 0, 0, 0, 0, 0]"] ;
44 -> 48 ;
49 [label="gini = 0.0\nsamples = 4\nvalue = [0, 0, 0, 4, 0, 0, 0, 0, 0, 0]"] ;
48 -> 49 ;
50 [label="gini = 0.0\nsamples = 9\nvalue = [0, 0, 0, 0, 9, 0, 0, 0, 0, 0]"] ;
48 -> 50 ;
51 [label="38 <= 0.5\ngini = 0.304\nsamples = 17\nvalue = [0, 14, 0, 1, 0, 0, 2, 0, 0, 0]"] ;
43 -> 51 ;
52 [label="gini = 0.0\nsamples = 14\nvalue = [0, 14, 0, 0, 0, 0, 0, 0, 0, 0]"] ;
51 -> 52 ;
53 [label="51 <= 15.5\ngini = 0.444\nsamples = 3\nvalue = [0, 0, 0, 1, 0, 0, 2, 0, 0, 0]"] ;
51 -> 53 ;
54 [label="gini = 0.0\nsamples = 1\nvalue = [0, 0, 0, 1, 0, 0, 0, 0, 0, 0]"] ;
53 -> 54 ;
55 [label="gini = 0.0\nsamples = 2\nvalue = [0, 0, 0, 0, 0, 0, 2, 0, 0, 0]"] ;
53 -> 55 ;
56 [label="20 <= 10.5\ngini = 0.194\nsamples = 86\nvalue = [0, 4, 0, 4, 1, 77, 0, 0, 0, 0]"] ;
42 -> 56 ;
57 [label="10 <= 2.5\ngini = 0.05\nsamples = 79\nvalue = [0, 0, 0, 1, 1, 77, 0, 0, 0, 0]"] ;
56 -> 57 ;
58 [label="gini = 0.0\nsamples = 1\nvalue = [0, 0, 0, 0, 1, 0, 0, 0, 0, 0]"] ;
57 -> 58 ;
59 [label="26 <= 0.5\ngini = 0.025\nsamples = 78\nvalue = [0, 0, 0, 1, 0, 77, 0, 0, 0, 0]"] ;
57 -> 59 ;
60 [label="gini = 0.0\nsamples = 1\nvalue = [0, 0, 0, 1, 0, 0, 0, 0, 0, 0]"] ;
59 -> 60 ;
61 [label="gini = 0.0\nsamples = 77\nvalue = [0, 0, 0, 0, 0, 77, 0, 0, 0, 0]"] ;
59 -> 61 ;
62 [label="45 <= 8.5\ngini = 0.49\nsamples = 7\nvalue = [0, 4, 0, 3, 0, 0, 0, 0, 0, 0]"] ;
56 -> 62 ;
63 [label="gini = 0.0\nsamples = 4\nvalue = [0, 4, 0, 0, 0, 0, 0, 0, 0, 0]"] ;
62 -> 63 ;
64 [label="gini = 0.0\nsamples = 3\nvalue = [0, 0, 0, 3, 0, 0, 0, 0, 0, 0]"] ;
62 -> 64 ;
65 [label="30 <= 1.5\ngini = 0.816\nsamples = 336\nvalue = [1, 57, 46, 90, 24, 3, 0, 18, 19, 78]"] ;
41 -> 65 ;
66 [label="46 <= 3.5\ngini = 0.74\nsamples = 214\nvalue = [0, 47, 44, 85, 0, 2, 0, 4, 15, 17]"] ;
65 -> 66 ;
67 [label="10 <= 9.5\ngini = 0.755\nsamples = 135\nvalue = [0, 45, 43, 17, 0, 2, 0, 4, 13, 11]"] ;
66 -> 67 ;
68 [label="20 <= 10.5\ngini = 0.196\nsamples = 47\nvalue = [0, 42, 0, 1, 0, 0, 0, 1, 0, 3]"] ;
67 -> 68 ;
69 [label="10 <= 7.0\ngini = 0.625\nsamples = 4\nvalue = [0, 0, 0, 1, 0, 0, 0, 1, 0, 2]"] ;
68 -> 69 ;
70 [label="gini = 0.0\nsamples = 2\nvalue = [0, 0, 0, 0, 0, 0, 0, 0, 0, 2]"] ;
69 -> 70 ;
71 [label="3 <= 13.0\ngini = 0.5\nsamples = 2\nvalue = [0, 0, 0, 1, 0, 0, 0, 1, 0, 0]"] ;
69 -> 71 ;
72 [label="gini = 0.0\nsamples = 1\nvalue = [0, 0, 0, 1, 0, 0, 0, 0, 0, 0]"] ;
71 -> 72 ;
73 [label="gini = 0.0\nsamples = 1\nvalue = [0, 0, 0, 0, 0, 0, 0, 1, 0, 0]"] ;
71 -> 73 ;
74 [label="28 <= 12.0\ngini = 0.045\nsamples = 43\nvalue = [0, 42, 0, 0, 0, 0, 0, 0, 0, 1]"] ;
68 -> 74 ;
75 [label="gini = 0.0\nsamples = 1\nvalue = [0, 0, 0, 0, 0, 0, 0, 0, 0, 1]"] ;
74 -> 75 ;
76 [label="gini = 0.0\nsamples = 42\nvalue = [0, 42, 0, 0, 0, 0, 0, 0, 0, 0]"] ;
74 -> 76 ;
77 [label="62 <= 5.5\ngini = 0.695\nsamples = 88\nvalue = [0, 3, 43, 16, 0, 2, 0, 3, 13, 8]"] ;
67 -> 77 ;
78 [label="43 <= 11.0\ngini = 0.79\nsamples = 51\nvalue = [0, 3, 7, 16, 0, 2, 0, 3, 13, 7]"] ;
77 -> 78 ;
79 [label="18 <= 14.5\ngini = 0.557\nsamples = 25\nvalue = [0, 0, 1, 15, 0, 1, 0, 1, 0, 7]"] ;
78 -> 79 ;
80 [label="gini = 0.366\nsamples = 19\nvalue = [0, 0, 1, 15, 0, 1, 0, 1, 0, 1]"] ;
79 -> 80 ;
81 [label="gini = 0.0\nsamples = 6\nvalue = [0, 0, 0, 0, 0, 0, 0, 0, 0, 6]"] ;
79 -> 81 ;
82 [label="34 <= 0.5\ngini = 0.675\nsamples = 26\nvalue = [0, 3, 6, 1, 0, 1, 0, 2, 13, 0]"] ;
78 -> 82 ;
83 [label="gini = 0.245\nsamples = 7\nvalue = [0, 0, 6, 0, 0, 0, 0, 0, 1, 0]"] ;
82 -> 83 ;
84 [label="gini = 0.56\nsamples = 19\nvalue = [0, 3, 0, 1, 0, 1, 0, 2, 12, 0]"] ;
82 -> 84 ;
85 [label="45 <= 12.0\ngini = 0.053\nsamples = 37\nvalue = [0, 0, 36, 0, 0, 0, 0, 0, 0, 1]"] ;
77 -> 85 ;
86 [label="gini = 0.0\nsamples = 36\nvalue = [0, 0, 36, 0, 0, 0, 0, 0, 0, 0]"] ;
85 -> 86 ;
87 [label="gini = 0.0\nsamples = 1\nvalue = [0, 0, 0, 0, 0, 0, 0, 0, 0, 1]"] ;
85 -> 87 ;
88 [label="18 <= 9.5\ngini = 0.252\nsamples = 79\nvalue = [0, 2, 1, 68, 0, 0, 0, 0, 2, 6]"] ;
66 -> 88 ;
89 [label="59 <= 6.0\ngini = 0.031\nsamples = 64\nvalue = [0, 1, 0, 63, 0, 0, 0, 0, 0, 0]"] ;
88 -> 89 ;
90 [label="gini = 0.0\nsamples = 1\nvalue = [0, 1, 0, 0, 0, 0, 0, 0, 0, 0]"] ;
89 -> 90 ;
91 [label="gini = 0.0\nsamples = 63\nvalue = [0, 0, 0, 63, 0, 0, 0, 0, 0, 0]"] ;
89 -> 91 ;
92 [label="36 <= 9.5\ngini = 0.702\nsamples = 15\nvalue = [0, 1, 1, 5, 0, 0, 0, 0, 2, 6]"] ;
88 -> 92 ;
93 [label="4 <= 14.5\ngini = 0.245\nsamples = 7\nvalue = [0, 0, 0, 1, 0, 0, 0, 0, 0, 6]"] ;
92 -> 93 ;
94 [label="gini = 0.0\nsamples = 6\nvalue = [0, 0, 0, 0, 0, 0, 0, 0, 0, 6]"] ;
93 -> 94 ;
95 [label="gini = 0.0\nsamples = 1\nvalue = [0, 0, 0, 1, 0, 0, 0, 0, 0, 0]"] ;
93 -> 95 ;
96 [label="25 <= 3.0\ngini = 0.656\nsamples = 8\nvalue = [0, 1, 1, 4, 0, 0, 0, 0, 2, 0]"] ;
92 -> 96 ;
97 [label="10 <= 9.5\ngini = 0.32\nsamples = 5\nvalue = [0, 1, 0, 4, 0, 0, 0, 0, 0, 0]"] ;
96 -> 97 ;
98 [label="gini = 0.0\nsamples = 1\nvalue = [0, 1, 0, 0, 0, 0, 0, 0, 0, 0]"] ;
97 -> 98 ;
99 [label="gini = 0.0\nsamples = 4\nvalue = [0, 0, 0, 4, 0, 0, 0, 0, 0, 0]"] ;
97 -> 99 ;
100 [label="10 <= 15.5\ngini = 0.444\nsamples = 3\nvalue = [0, 0, 1, 0, 0, 0, 0, 0, 2, 0]"] ;
96 -> 100 ;
101 [label="gini = 0.0\nsamples = 2\nvalue = [0, 0, 0, 0, 0, 0, 0, 0, 2, 0]"] ;
100 -> 101 ;
102 [label="gini = 0.0\nsamples = 1\nvalue = [0, 0, 1, 0, 0, 0, 0, 0, 0, 0]"] ;
100 -> 102 ;
103 [label="36 <= 11.5\ngini = 0.688\nsamples = 122\nvalue = [1, 10, 2, 5, 24, 1, 0, 14, 4, 61]"] ;
65 -> 103 ;
104 [label="42 <= 3.5\ngini = 0.201\nsamples = 56\nvalue = [1, 1, 1, 1, 1, 1, 0, 0, 0, 50]"] ;
103 -> 104 ;
105 [label="21 <= 7.5\ngini = 0.109\nsamples = 53\nvalue = [0, 0, 1, 0, 1, 1, 0, 0, 0, 50]"] ;
104 -> 105 ;
106 [label="gini = 0.0\nsamples = 1\nvalue = [0, 0, 0, 0, 0, 1, 0, 0, 0, 0]"] ;
105 -> 106 ;
107 [label="28 <= 0.5\ngini = 0.075\nsamples = 52\nvalue = [0, 0, 1, 0, 1, 0, 0, 0, 0, 50]"] ;
105 -> 107 ;
108 [label="gini = 0.0\nsamples = 1\nvalue = [0, 0, 1, 0, 0, 0, 0, 0, 0, 0]"] ;
107 -> 108 ;
109 [label="3 <= 1.5\ngini = 0.038\nsamples = 51\nvalue = [0, 0, 0, 0, 1, 0, 0, 0, 0, 50]"] ;
107 -> 109 ;
110 [label="gini = 0.444\nsamples = 3\nvalue = [0, 0, 0, 0, 1, 0, 0, 0, 0, 2]"] ;
109 -> 110 ;
111 [label="gini = 0.0\nsamples = 48\nvalue = [0, 0, 0, 0, 0, 0, 0, 0, 0, 48]"] ;
109 -> 111 ;
112 [label="21 <= 12.0\ngini = 0.667\nsamples = 3\nvalue = [1, 1, 0, 1, 0, 0, 0, 0, 0, 0]"] ;
104 -> 112 ;
113 [label="gini = 0.0\nsamples = 1\nvalue = [1, 0, 0, 0, 0, 0, 0, 0, 0, 0]"] ;
112 -> 113 ;
114 [label="52 <= 7.5\ngini = 0.5\nsamples = 2\nvalue = [0, 1, 0, 1, 0, 0, 0, 0, 0, 0]"] ;
112 -> 114 ;
115 [label="gini = 0.0\nsamples = 1\nvalue = [0, 0, 0, 1, 0, 0, 0, 0, 0, 0]"] ;
114 -> 115 ;
116 [label="gini = 0.0\nsamples = 1\nvalue = [0, 1, 0, 0, 0, 0, 0, 0, 0, 0]"] ;
114 -> 116 ;
117 [label="26 <= 9.0\ngini = 0.78\nsamples = 66\nvalue = [0, 9, 1, 4, 23, 0, 0, 14, 4, 11]"] ;
103 -> 117 ;
118 [label="61 <= 0.5\ngini = 0.63\nsamples = 25\nvalue = [0, 4, 1, 4, 0, 0, 0, 14, 1, 1]"] ;
117 -> 118 ;
119 [label="gini = 0.0\nsamples = 13\nvalue = [0, 0, 0, 0, 0, 0, 0, 13, 0, 0]"] ;
118 -> 119 ;
120 [label="20 <= 15.0\ngini = 0.75\nsamples = 12\nvalue = [0, 4, 1, 4, 0, 0, 0, 1, 1, 1]"] ;
118 -> 120 ;
121 [label="53 <= 12.5\ngini = 0.688\nsamples = 8\nvalue = [0, 0, 1, 4, 0, 0, 0, 1, 1, 1]"] ;
120 -> 121 ;
122 [label="gini = 0.667\nsamples = 3\nvalue = [0, 0, 1, 0, 0, 0, 0, 1, 1, 0]"] ;
121 -> 122 ;
123 [label="gini = 0.32\nsamples = 5\nvalue = [0, 0, 0, 4, 0, 0, 0, 0, 0, 1]"] ;
121 -> 123 ;
124 [label="gini = 0.0\nsamples = 4\nvalue = [0, 4, 0, 0, 0, 0, 0, 0, 0, 0]"] ;
120 -> 124 ;
125 [label="5 <= 12.5\ngini = 0.606\nsamples = 41\nvalue = [0, 5, 0, 0, 23, 0, 0, 0, 3, 10]"] ;
117 -> 125 ;
126 [label="19 <= 2.5\ngini = 0.36\nsamples = 28\nvalue = [0, 0, 0, 0, 22, 0, 0, 0, 3, 3]"] ;
125 -> 126 ;
127 [label="42 <= 4.0\ngini = 0.5\nsamples = 6\nvalue = [0, 0, 0, 0, 0, 0, 0, 0, 3, 3]"] ;
126 -> 127 ;
128 [label="gini = 0.0\nsamples = 3\nvalue = [0, 0, 0, 0, 0, 0, 0, 0, 0, 3]"] ;
127 -> 128 ;
129 [label="gini = 0.0\nsamples = 3\nvalue = [0, 0, 0, 0, 0, 0, 0, 0, 3, 0]"] ;
127 -> 129 ;
130 [label="gini = 0.0\nsamples = 22\nvalue = [0, 0, 0, 0, 22, 0, 0, 0, 0, 0]"] ;
126 -> 130 ;
131 [label="10 <= 0.5\ngini = 0.556\nsamples = 13\nvalue = [0, 5, 0, 0, 1, 0, 0, 0, 0, 7]"] ;
125 -> 131 ;
132 [label="20 <= 10.0\ngini = 0.278\nsamples = 6\nvalue = [0, 5, 0, 0, 1, 0, 0, 0, 0, 0]"] ;
131 -> 132 ;
133 [label="gini = 0.0\nsamples = 1\nvalue = [0, 0, 0, 0, 1, 0, 0, 0, 0, 0]"] ;
132 -> 133 ;
134 [label="gini = 0.0\nsamples = 5\nvalue = [0, 5, 0, 0, 0, 0, 0, 0, 0, 0]"] ;
132 -> 134 ;
135 [label="gini = 0.0\nsamples = 7\nvalue = [0, 0, 0, 0, 0, 0, 0, 0, 0, 7]"] ;
131 -> 135 ;
136 [label="21 <= 0.5\ngini = 0.758\nsamples = 277\nvalue = [4, 24, 22, 0, 56, 0, 94, 3, 74, 0]"] ;
40 -> 136 ;
137 [label="46 <= 3.5\ngini = 0.475\nsamples = 134\nvalue = [0, 6, 10, 0, 21, 0, 94, 0, 3, 0]"] ;
136 -> 137 ;
138 [label="45 <= 7.0\ngini = 0.697\nsamples = 41\nvalue = [0, 6, 10, 0, 18, 0, 7, 0, 0, 0]"] ;
137 -> 138 ;
139 [label="44 <= 2.0\ngini = 0.469\nsamples = 16\nvalue = [0, 6, 10, 0, 0, 0, 0, 0, 0, 0]"] ;
138 -> 139 ;
140 [label="gini = 0.0\nsamples = 10\nvalue = [0, 0, 10, 0, 0, 0, 0, 0, 0, 0]"] ;
139 -> 140 ;
141 [label="gini = 0.0\nsamples = 6\nvalue = [0, 6, 0, 0, 0, 0, 0, 0, 0, 0]"] ;
139 -> 141 ;
142 [label="52 <= 13.5\ngini = 0.403\nsamples = 25\nvalue = [0, 0, 0, 0, 18, 0, 7, 0, 0, 0]"] ;
138 -> 142 ;
143 [label="gini = 0.0\nsamples = 7\nvalue = [0, 0, 0, 0, 0, 0, 7, 0, 0, 0]"] ;
142 -> 143 ;
144 [label="gini = 0.0\nsamples = 18\nvalue = [0, 0, 0, 0, 18, 0, 0, 0, 0, 0]"] ;
142 -> 144 ;
145 [label="20 <= 6.0\ngini = 0.123\nsamples = 93\nvalue = [0, 0, 0, 0, 3, 0, 87, 0, 3, 0]"] ;
137 -> 145 ;
146 [label="54 <= 1.0\ngini = 0.023\nsamples = 87\nvalue = [0, 0, 0, 0, 1, 0, 86, 0, 0, 0]"] ;
145 -> 146 ;
147 [label="gini = 0.0\nsamples = 1\nvalue = [0, 0, 0, 0, 1, 0, 0, 0, 0, 0]"] ;
146 -> 147 ;
148 [label="gini = 0.0\nsamples = 86\nvalue = [0, 0, 0, 0, 0, 0, 86, 0, 0, 0]"] ;
146 -> 148 ;
149 [label="28 <= 4.5\ngini = 0.611\nsamples = 6\nvalue = [0, 0, 0, 0, 2, 0, 1, 0, 3, 0]"] ;
145 -> 149 ;
150 [label="46 <= 10.5\ngini = 0.444\nsamples = 3\nvalue = [0, 0, 0, 0, 2, 0, 1, 0, 0, 0]"] ;
149 -> 150 ;
151 [label="gini = 0.0\nsamples = 2\nvalue = [0, 0, 0, 0, 2, 0, 0, 0, 0, 0]"] ;
150 -> 151 ;
152 [label="gini = 0.0\nsamples = 1\nvalue = [0, 0, 0, 0, 0, 0, 1, 0, 0, 0]"] ;
150 -> 152 ;
153 [label="gini = 0.0\nsamples = 3\nvalue = [0, 0, 0, 0, 0, 0, 0, 0, 3, 0]"] ;
149 -> 153 ;
154 [label="58 <= 0.5\ngini = 0.669\nsamples = 143\nvalue = [4, 18, 12, 0, 35, 0, 0, 3, 71, 0]"] ;
136 -> 154 ;
155 [label="5 <= 11.5\ngini = 0.229\nsamples = 40\nvalue = [0, 2, 0, 0, 35, 0, 0, 1, 2, 0]"] ;
154 -> 155 ;
156 [label="61 <= 15.0\ngini = 0.054\nsamples = 36\nvalue = [0, 0, 0, 0, 35, 0, 0, 0, 1, 0]"] ;
155 -> 156 ;
157 [label="gini = 0.0\nsamples = 35\nvalue = [0, 0, 0, 0, 35, 0, 0, 0, 0, 0]"] ;
156 -> 157 ;
158 [label="gini = 0.0\nsamples = 1\nvalue = [0, 0, 0, 0, 0, 0, 0, 0, 1, 0]"] ;
156 -> 158 ;
159 [label="53 <= 11.0\ngini = 0.625\nsamples = 4\nvalue = [0, 2, 0, 0, 0, 0, 0, 1, 1, 0]"] ;
155 -> 159 ;
160 [label="28 <= 8.0\ngini = 0.5\nsamples = 2\nvalue = [0, 0, 0, 0, 0, 0, 0, 1, 1, 0]"] ;
159 -> 160 ;
161 [label="gini = 0.0\nsamples = 1\nvalue = [0, 0, 0, 0, 0, 0, 0, 1, 0, 0]"] ;
160 -> 161 ;
162 [label="gini = 0.0\nsamples = 1\nvalue = [0, 0, 0, 0, 0, 0, 0, 0, 1, 0]"] ;
160 -> 162 ;
163 [label="gini = 0.0\nsamples = 2\nvalue = [0, 2, 0, 0, 0, 0, 0, 0, 0, 0]"] ;
159 -> 163 ;
164 [label="51 <= 15.5\ngini = 0.512\nsamples = 103\nvalue = [4, 16, 12, 0, 0, 0, 0, 2, 69, 0]"] ;
154 -> 164 ;
165 [label="27 <= 6.5\ngini = 0.333\nsamples = 77\nvalue = [3, 0, 10, 0, 0, 0, 0, 2, 62, 0]"] ;
164 -> 165 ;
166 [label="45 <= 7.5\ngini = 0.593\nsamples = 9\nvalue = [2, 0, 5, 0, 0, 0, 0, 2, 0, 0]"] ;
165 -> 166 ;
167 [label="gini = 0.0\nsamples = 5\nvalue = [0, 0, 5, 0, 0, 0, 0, 0, 0, 0]"] ;
166 -> 167 ;
168 [label="5 <= 4.5\ngini = 0.5\nsamples = 4\nvalue = [2, 0, 0, 0, 0, 0, 0, 2, 0, 0]"] ;
166 -> 168 ;
169 [label="gini = 0.0\nsamples = 2\nvalue = [2, 0, 0, 0, 0, 0, 0, 0, 0, 0]"] ;
168 -> 169 ;
170 [label="gini = 0.0\nsamples = 2\nvalue = [0, 0, 0, 0, 0, 0, 0, 2, 0, 0]"] ;
168 -> 170 ;
171 [label="44 <= 0.5\ngini = 0.163\nsamples = 68\nvalue = [1, 0, 5, 0, 0, 0, 0, 0, 62, 0]"] ;
165 -> 171 ;
172 [label="37 <= 11.0\ngini = 0.58\nsamples = 10\nvalue = [1, 0, 4, 0, 0, 0, 0, 0, 5, 0]"] ;
171 -> 172 ;
173 [label="45 <= 6.0\ngini = 0.32\nsamples = 5\nvalue = [1, 0, 4, 0, 0, 0, 0, 0, 0, 0]"] ;
172 -> 173 ;
174 [label="gini = 0.0\nsamples = 4\nvalue = [0, 0, 4, 0, 0, 0, 0, 0, 0, 0]"] ;
173 -> 174 ;
175 [label="gini = 0.0\nsamples = 1\nvalue = [1, 0, 0, 0, 0, 0, 0, 0, 0, 0]"] ;
173 -> 175 ;
176 [label="gini = 0.0\nsamples = 5\nvalue = [0, 0, 0, 0, 0, 0, 0, 0, 5, 0]"] ;
172 -> 176 ;
177 [label="27 <= 9.5\ngini = 0.034\nsamples = 58\nvalue = [0, 0, 1, 0, 0, 0, 0, 0, 57, 0]"] ;
171 -> 177 ;
178 [label="36 <= 8.5\ngini = 0.444\nsamples = 3\nvalue = [0, 0, 1, 0, 0, 0, 0, 0, 2, 0]"] ;
177 -> 178 ;
179 [label="gini = 0.0\nsamples = 1\nvalue = [0, 0, 1, 0, 0, 0, 0, 0, 0, 0]"] ;
178 -> 179 ;
180 [label="gini = 0.0\nsamples = 2\nvalue = [0, 0, 0, 0, 0, 0, 0, 0, 2, 0]"] ;
178 -> 180 ;
181 [label="gini = 0.0\nsamples = 55\nvalue = [0, 0, 0, 0, 0, 0, 0, 0, 55, 0]"] ;
177 -> 181 ;
182 [label="19 <= 12.0\ngini = 0.541\nsamples = 26\nvalue = [1, 16, 2, 0, 0, 0, 0, 0, 7, 0]"] ;
164 -> 182 ;
183 [label="22 <= 1.0\ngini = 0.494\nsamples = 9\nvalue = [1, 0, 2, 0, 0, 0, 0, 0, 6, 0]"] ;
182 -> 183 ;
184 [label="36 <= 5.0\ngini = 0.444\nsamples = 3\nvalue = [1, 0, 2, 0, 0, 0, 0, 0, 0, 0]"] ;
183 -> 184 ;
185 [label="gini = 0.0\nsamples = 1\nvalue = [1, 0, 0, 0, 0, 0, 0, 0, 0, 0]"] ;
184 -> 185 ;
186 [label="gini = 0.0\nsamples = 2\nvalue = [0, 0, 2, 0, 0, 0, 0, 0, 0, 0]"] ;
184 -> 186 ;
187 [label="gini = 0.0\nsamples = 6\nvalue = [0, 0, 0, 0, 0, 0, 0, 0, 6, 0]"] ;
183 -> 187 ;
188 [label="58 <= 11.5\ngini = 0.111\nsamples = 17\nvalue = [0, 16, 0, 0, 0, 0, 0, 0, 1, 0]"] ;
182 -> 188 ;
189 [label="gini = 0.0\nsamples = 16\nvalue = [0, 16, 0, 0, 0, 0, 0, 0, 0, 0]"] ;
188 -> 189 ;
190 [label="gini = 0.0\nsamples = 1\nvalue = [0, 0, 0, 0, 0, 0, 0, 0, 1, 0]"] ;
188 -> 190 ;
}
